<?xml version="1.0" encoding="utf-8"?><NeuralNetwork Type="Learning Vector Quantization"><Parameters><Name>Name</Name><VEC_LEN>5</VEC_LEN><NUMBER_OF_CLUSTERS>3</NUMBER_OF_CLUSTERS></Parameters><Weights><Neuron Index="0"><Axon Index="0">0,788901608600607</Axon><Axon Index="1">0,10644148661178</Axon><Axon Index="2">0,0594817430524748</Axon><Axon Index="3">0,0208083904334252</Axon><Axon Index="4">0,0243324725524676</Axon></Neuron><Neuron Index="1"><Axon Index="0">0,74329</Axon><Axon Index="1">0,09384</Axon><Axon Index="2">0,02432</Axon><Axon Index="3">0,03773</Axon><Axon Index="4">0,09793</Axon></Neuron><Neuron Index="2"><Axon Index="0">0,817706026</Axon><Axon Index="1">0,077411755</Axon><Axon Index="2">0,14482351</Axon><Axon Index="3">0,018529437</Axon><Axon Index="4">-0,058470728</Axon></Neuron><Neuron Index="3"><Axon Index="0">0,783721091038325</Axon><Axon Index="1">0,0523362569746286</Axon><Axon Index="2">0,0488396080204357</Axon><Axon Index="3">0,05312767088496</Axon><Axon Index="4">0,0515036555686444</Axon></Neuron><Neuron Index="4"><Axon Index="0">0,873508090795968</Axon><Axon Index="1">0,0894004435421054</Axon><Axon Index="2">0,0348935044839479</Axon><Axon Index="3">0,0198313651726053</Axon><Axon Index="4">-0,00458470655909142</Axon></Neuron><Neuron Index="5"><Axon Index="0">0,870798801574622</Axon><Axon Index="1">0,0287284612826551</Axon><Axon Index="2">0,0319865946442644</Axon><Axon Index="3">0,0222417427896279</Axon><Axon Index="4">0,044533152690251</Axon></Neuron><Neuron Index="6"><Axon Index="0">0,8441</Axon><Axon Index="1">0,1211</Axon><Axon Index="2">0,0359</Axon><Axon Index="3">-0,0295</Axon><Axon Index="4">0,0284</Axon></Neuron><Neuron Index="7"><Axon Index="0">0,721346384587121</Axon><Axon Index="1">0,0135265350286346</Axon><Axon Index="2">0,238555657749329</Axon><Axon Index="3">0,0293755905351761</Axon><Axon Index="4">-0,00280416790026065</Axon></Neuron><Neuron Index="8"><Axon Index="0">0,903423969757738</Axon><Axon Index="1">0,0383251090535453</Axon><Axon Index="2">0,0334939464516208</Axon><Axon Index="3">0,019346668681714</Axon><Axon Index="4">0,00541030605538189</Axon></Neuron></Weights></NeuralNetwork>