<?xml version="1.0" encoding="utf-8"?><NeuralNetwork Type="BackPropagation"><Parameters><Name>Default</Name><inputSize>5</inputSize><layerCount>2</layerCount><Layers><Layer Index="0" Size="10" Type="BipolarSigmoid" /><Layer Index="1" Size="1" Type="BipolarSigmoid" /></Layers></Parameters><Weights><Layer Index="0"><Node Index="0" Bias="0,678422321633723"><Axon Index="0">-0,951484210081069</Axon><Axon Index="1">2,96670033783601</Axon><Axon Index="2">-1,46225914023015</Axon><Axon Index="3">1,13736015593712</Axon><Axon Index="4">-1,4667960616467</Axon></Node><Node Index="1" Bias="-4,85568570630609"><Axon Index="0">11,5120609609107</Axon><Axon Index="1">-44,2646858009045</Axon><Axon Index="2">13,9221083526526</Axon><Axon Index="3">-8,61694159782823</Axon><Axon Index="4">10,6244736762775</Axon></Node><Node Index="2" Bias="-1,11174268812482"><Axon Index="0">3,84627436603564</Axon><Axon Index="1">0,244751879685752</Axon><Axon Index="2">17,7310478169496</Axon><Axon Index="3">-4,73813995676051</Axon><Axon Index="4">-13,3875515627109</Axon></Node><Node Index="3" Bias="-20,4172492382051"><Axon Index="0">28,4777142622595</Axon><Axon Index="1">-4,88305607994349</Axon><Axon Index="2">-17,4773442862046</Axon><Axon Index="3">-22,4148568350143</Axon><Axon Index="4">2,31948603038972</Axon></Node><Node Index="4" Bias="-1,65529326931848"><Axon Index="0">2,55973531316378</Axon><Axon Index="1">1,95228231570492</Axon><Axon Index="2">-8,92218806484694</Axon><Axon Index="3">-4,62395183296873</Axon><Axon Index="4">6,71498103704096</Axon></Node><Node Index="5" Bias="-1,19593993608193"><Axon Index="0">3,15585969087316</Axon><Axon Index="1">-1,58341415071507</Axon><Axon Index="2">8,88157346631048</Axon><Axon Index="3">-3,72103471797355</Axon><Axon Index="4">-8,03358177059818</Axon></Node><Node Index="6" Bias="-10,8184742367342"><Axon Index="0">15,7260337107485</Axon><Axon Index="1">-17,9239096569949</Axon><Axon Index="2">-15,6317933916151</Axon><Axon Index="3">37,0581219940388</Axon><Axon Index="4">-47,3345794044219</Axon></Node><Node Index="7" Bias="6,10532905597429"><Axon Index="0">-2,89298695144712</Axon><Axon Index="1">13,9959998513238</Axon><Axon Index="2">-14,3236681396916</Axon><Axon Index="3">-8,70788165552627</Axon><Axon Index="4">20,9773544511661</Axon></Node><Node Index="8" Bias="-0,761203992183357"><Axon Index="0">0,988308211715552</Axon><Axon Index="1">-1,62455257326014</Axon><Axon Index="2">1,15666148582658</Axon><Axon Index="3">-1,95762046431688</Axon><Axon Index="4">2,28774399383311</Axon></Node><Node Index="9" Bias="-2,5815569510405"><Axon Index="0">3,07465802228481</Axon><Axon Index="1">-0,516731567388364</Axon><Axon Index="2">7,85775552113791</Axon><Axon Index="3">-1,29533230044838</Axon><Axon Index="4">-3,54248086298929</Axon></Node></Layer><Layer Index="1"><Node Index="0" Bias="7,18777699273468"><Axon Index="0">0,210859088879968</Axon><Axon Index="1">17,134864439247</Axon><Axon Index="2">-8,093376506633</Axon><Axon Index="3">-9,24641213970704</Axon><Axon Index="4">0,494649991941694</Axon><Axon Index="5">-3,05683580752482</Axon><Axon Index="6">10,0916543351348</Axon><Axon Index="7">-9,19390660540196</Axon><Axon Index="8">-0,243836883378225</Axon><Axon Index="9">-1,19092825332481</Axon></Node></Layer></Weights></NeuralNetwork>